<?xml version="1.0"?>
<opencv_storage>
<cascade>
  <stageType>BOOST</stageType>
  <featureType>HAAR</featureType>
  <height>20</height>
  <width>20</width>
  <stageParams>
    <boostType>GAB</boostType>
    <minHitRate>9.9900001287460327e-01</minHitRate>
    <maxFalseAlarm>5.0000000745058060e-02</maxFalseAlarm>
    <weightTrimRate>9.4999999999999996e-01</weightTrimRate>
    <maxDepth>1</maxDepth>
    <maxWeakCount>100</maxWeakCount></stageParams>
  <featureParams>
    <maxCatCount>0</maxCatCount>
    <featSize>1</featSize>
    <mode>ALL</mode></featureParams>
  <stageNum>3</stageNum>
  <stages>
    <!-- stage 0 -->
    <_>
      <maxWeakCount>8</maxWeakCount>
      <stageThreshold>-4.7421050071716309e-01</stageThreshold>
      <weakClassifiers>
        <_>
          <internalNodes>
            0 -1 8 1.3438973575830460e-02</internalNodes>
          <leafValues>
            -6.8248176574707031e-01 8.2743364572525024e-01</leafValues></_>
        <_>
          <internalNodes>
            0 -1 13 -1.6981985419988632e-02</internalNodes>
          <leafValues>
            7.1753656864166260e-01 -7.3947799205780029e-01</leafValues></_>
        <_>
          <internalNodes>
            0 -1 6 -1.8931910395622253e-02</internalNodes>
          <leafValues>
            7.5347775220870972e-01 -6.6641700267791748e-01</leafValues></_>
        <_>
          <internalNodes>
            0 -1 10 3.0613809358328581e-03</internalNodes>
          <leafValues>
            -6.2091451883316040e-01 8.7883281707763672e-01</leafValues></_>
        <_>
          <internalNodes>
            0 -1 12 -1.6335738822817802e-02</internalNodes>
          <leafValues>
            5.5132085084915161e-01 -8.5860598087310791e-01</leafValues></_>
        <_>
          <internalNodes>
            0 -1 18 -4.0393682866124436e-05</internalNodes>
          <leafValues>
            -9.9597978591918945e-01 4.1139659285545349e-01</leafValues></_>
        <_>
          <internalNodes>
            0 -1 1 5.0465096719563007e-03</internalNodes>
          <leafValues>
            -6.0895073413848877e-01 7.2105085849761963e-01</leafValues></_>
        <_>
          <internalNodes>
            0 -1 0 1.6321336850523949e-02</internalNodes>
          <leafValues>
            -9.8659455776214600e-01 4.6141928434371948e-01</leafValues></_></weakClassifiers></_>
    <!-- stage 1 -->
    <_>
      <maxWeakCount>8</maxWeakCount>
      <stageThreshold>3.3309236168861389e-01</stageThreshold>
      <weakClassifiers>
        <_>
          <internalNodes>
            0 -1 5 3.5742991603910923e-03</internalNodes>
          <leafValues>
            -6.0790777206420898e-01 9.3893128633499146e-01</leafValues></_>
        <_>
          <internalNodes>
            0 -1 4 1.7281766980886459e-02</internalNodes>
          <leafValues>
            -5.5387699604034424e-01 9.3464004993438721e-01</leafValues></_>
        <_>
          <internalNodes>
            0 -1 16 -2.0281608158256859e-05</internalNodes>
          <leafValues>
            -1. 5.2501922845840454e-01</leafValues></_>
        <_>
          <internalNodes>
            0 -1 7 5.3169331513345242e-03</internalNodes>
          <leafValues>
            -4.6683582663536072e-01 9.6433144807815552e-01</leafValues></_>
        <_>
          <internalNodes>
            0 -1 9 4.3285321444272995e-03</internalNodes>
          <leafValues>
            -5.7188916206359863e-01 1.</leafValues></_>
        <_>
          <internalNodes>
            0 -1 15 -3.3323049137834460e-05</internalNodes>
          <leafValues>
            -8.6285233497619629e-01 6.0028111934661865e-01</leafValues></_>
        <_>
          <internalNodes>
            0 -1 19 -2.4285669496748596e-05</internalNodes>
          <leafValues>
            -1. 4.1369396448135376e-01</leafValues></_>
        <_>
          <internalNodes>
            0 -1 11 -2.7065725997090340e-02</internalNodes>
          <leafValues>
            9.9460780620574951e-01 -5.1112371683120728e-01</leafValues></_></weakClassifiers></_>
    <!-- stage 2 -->
    <_>
      <maxWeakCount>5</maxWeakCount>
      <stageThreshold>-1.2465675175189972e-01</stageThreshold>
      <weakClassifiers>
        <_>
          <internalNodes>
            0 -1 19 2.1319765437510796e-05</internalNodes>
          <leafValues>
            5.3374230861663818e-01 -1.</leafValues></_>
        <_>
          <internalNodes>
            0 -1 2 -2.5943666696548462e-02</internalNodes>
          <leafValues>
            -9.2706060409545898e-01 5.0462871789932251e-01</leafValues></_>
        <_>
          <internalNodes>
            0 -1 14 3.6986759369028732e-05</internalNodes>
          <leafValues>
            4.4638770818710327e-01 -1.</leafValues></_>
        <_>
          <internalNodes>
            0 -1 3 -2.0677767693996429e-02</internalNodes>
          <leafValues>
            8.7949037551879883e-01 -6.3518464565277100e-01</leafValues></_>
        <_>
          <internalNodes>
            0 -1 17 3.5882156225852668e-05</internalNodes>
          <leafValues>
            4.5745843648910522e-01 -1.</leafValues></_></weakClassifiers></_></stages>
  <features>
    <_>
      <rects>
        <_>
          0 0 20 5 -1.</_>
        <_>
          5 0 10 5 2.</_></rects>
      <tilted>0</tilted></_>
    <_>
      <rects>
        <_>
          0 10 2 8 -1.</_>
        <_>
          1 10 1 8 2.</_></rects>
      <tilted>0</tilted></_>
    <_>
      <rects>
        <_>
          4 3 8 4 -1.</_>
        <_>
          4 3 4 4 2.</_></rects>
      <tilted>1</tilted></_>
    <_>
      <rects>
        <_>
          4 10 3 3 -1.</_>
        <_>
          5 11 1 1 9.</_></rects>
      <tilted>0</tilted></_>
    <_>
      <rects>
        <_>
          5 11 3 3 -1.</_>
        <_>
          6 12 1 1 9.</_></rects>
      <tilted>0</tilted></_>
    <_>
      <rects>
        <_>
          7 6 3 1 -1.</_>
        <_>
          8 6 1 1 3.</_></rects>
      <tilted>0</tilted></_>
    <_>
      <rects>
        <_>
          7 9 6 3 -1.</_>
        <_>
          9 10 2 1 9.</_></rects>
      <tilted>0</tilted></_>
    <_>
      <rects>
        <_>
          7 13 3 1 -1.</_>
        <_>
          8 13 1 1 3.</_></rects>
      <tilted>0</tilted></_>
    <_>
      <rects>
        <_>
          9 7 3 3 -1.</_>
        <_>
          10 8 1 1 9.</_></rects>
      <tilted>0</tilted></_>
    <_>
      <rects>
        <_>
          10 7 2 2 -1.</_>
        <_>
          10 7 1 1 2.</_>
        <_>
          11 8 1 1 2.</_></rects>
      <tilted>0</tilted></_>
    <_>
      <rects>
        <_>
          10 13 3 1 -1.</_>
        <_>
          11 13 1 1 3.</_></rects>
      <tilted>0</tilted></_>
    <_>
      <rects>
        <_>
          12 10 3 3 -1.</_>
        <_>
          13 11 1 1 9.</_></rects>
      <tilted>0</tilted></_>
    <_>
      <rects>
        <_>
          12 14 8 6 -1.</_>
        <_>
          12 17 8 3 2.</_></rects>
      <tilted>0</tilted></_>
    <_>
      <rects>
        <_>
          16 1 4 18 -1.</_>
        <_>
          18 1 2 18 2.</_></rects>
      <tilted>0</tilted></_>
    <_>
      <rects>
        <_>
          17 0 2 1 -1.</_>
        <_>
          18 0 1 1 2.</_></rects>
      <tilted>0</tilted></_>
    <_>
      <rects>
        <_>
          17 0 3 1 -1.</_>
        <_>
          18 0 1 1 3.</_></rects>
      <tilted>0</tilted></_>
    <_>
      <rects>
        <_>
          18 0 2 1 -1.</_>
        <_>
          19 0 1 1 2.</_></rects>
      <tilted>0</tilted></_>
    <_>
      <rects>
        <_>
          18 0 2 2 -1.</_>
        <_>
          19 0 1 2 2.</_></rects>
      <tilted>0</tilted></_>
    <_>
      <rects>
        <_>
          19 0 1 8 -1.</_>
        <_>
          19 4 1 4 2.</_></rects>
      <tilted>0</tilted></_>
    <_>
      <rects>
        <_>
          19 18 1 2 -1.</_>
        <_>
          19 19 1 1 2.</_></rects>
      <tilted>0</tilted></_></features></cascade>
</opencv_storage>
